{"e": [0.24212897155019972, 0.6770491732491387, -0.08837612552775277, 1.0], "s": [0.2129822994271914, 0.6305942138036092, -0.07147614533702533, 1.0], "c": [0.28028465807437897, 0.5960109233856201, -0.08965113510688145, 1.0], "r": [0.28603066007296246, 0.659442534049352, -0.09380015730857849, 1.0], "i": [0.4225166067481041, 0.6805224368969599, -0.08154606881241004, 1.0], "b": [0.28983812034130096, 0.6194982826709747, -0.09602175280451775, 1.0], " ": [0.3575440096227746, 0.5350565063325983, -0.043444910772929064, 1.0], "l": [0.462799072265625, 0.644069567322731, -0.07822961360216141, 1.0], "a": [0.1792735094204545, 0.6261152997612953, -0.06883707409724593, 1.0], "g": [0.3200133442878723, 0.6377329975366592, -0.09879265911877155, 1.0], "u": [0.3885166272521019, 0.6728218346834183, -0.07870737463235855, 1.0], "n": [0.3799881587425868, 0.602279414733251, -0.07944854969779651, 1.0], "t": [0.309674434363842, 0.6644363701343536, -0.09064663015305996, 1.0], "o": [0.4611576460301876, 0.6833558455109596, -0.08773236069828272, 1.0], "f": [0.28901023666063946, 0.6336309909820557, -0.0962630162636439, 1.0], "j": [0.3937908262014389, 0.6421750485897064, -0.07726757973432541, 1.0], "q": [0.16668523102998734, 0.6726311147212982, -0.07501421868801117, 1.0], "p": [0.497406542301178, 0.6850405037403107, -0.08833763748407364, 1.0], "z": [0.19883139431476593, 0.6013603508472443, -0.06549124605953693, 1.0], "\u00f1": [0.5066254138946533, 0.637171745300293, -0.08426561951637268, 1.0], "d": [0.2544402480125427, 0.63373863697052, -0.09257486462593079, 1.0], "w": [0.20256736129522324, 0.6775139272212982, -0.07708709686994553, 1.0], "h": [0.3665638267993927, 0.6363334655761719, -0.07745375111699104, 1.0], "k": [0.4387265294790268, 0.632538229227066, -0.0735015794634819, 1.0], "y": [0.34948815405368805, 0.6723570823669434, -0.06704855337738991, 1.0], ",": [0.44128352403640747, 0.6089217364788055, -0.07840508967638016, 1.0], "x": [0.2398199588060379, 0.6014093359311422, -0.06971217443545659, 1.0], "v": [0.31858445703983307, 0.5939304828643799, -0.1010885015130043, 1.0], ".": [0.47461098432540894, 0.6089000999927521, -0.07164992764592171, 1.0], "m": [0.41402512788772583, 0.5982712507247925, -0.08669228851795197, 1.0]}