{
    "e": [
        0.2620798022974105,
        0.6741080511183964,
        -0.11354899867659525,
        1.0
    ],
    "s": [
        0.2227453738451004,
        0.6129476527372997,
        -0.0864764042198658,
        1.0
    ],
    "c": [
        0.3060393979152044,
        0.5634917716185253,
        -0.10059197371204695,
        1.0
    ],
    "r": [
        0.31147022048632306,
        0.6598734060923258,
        -0.12012645933363174,
        1.0
    ],
    "i": [
        0.47468208769957226,
        0.6706533696916369,
        -0.10220206073588795,
        1.0
    ],
    "b": [
        0.37944331020116806,
        0.5632732063531876,
        -0.1028567086905241,
        1.0
    ],
    " ": [
        0.38151548417846554,
        0.5085814906792208,
        -0.06718179628110388,
        1.0
    ],
    "l": [
        0.5192634761333466,
        0.6239147782325745,
        -0.09786366112530231,
        1.0
    ],
    "a": [
        0.17916408530436456,
        0.6151306172832847,
        -0.07923696178477257,
        1.0
    ],
    "g": [
        0.351536825299263,
        0.6069644540548325,
        -0.12102259881794453,
        1.0
    ],
    "u": [
        0.4233844578266144,
        0.6621317118406296,
        -0.0951790101826191,
        1.0
    ],
    "n": [
        0.4226480722427368,
        0.5661420822143555,
        -0.10136550292372704,
        1.0
    ],
    "t": [
        0.3407775859038035,
        0.6537841260433197,
        -0.11353845645984013,
        1.0
    ],
    "o": [
        0.5175634957849979,
        0.6738083064556122,
        -0.10934857046231627,
        1.0
    ],
    "f": [
        0.3173840045928955,
        0.6154763102531433,
        -0.11835647001862526,
        1.0
    ],
    "j": [
        0.43934856355190277,
        0.6218092739582062,
        -0.10734041035175323,
        1.0
    ],
    "q": [
        0.15511004626750946,
        0.6519578695297241,
        -0.08826471492648125,
        1.0
    ],
    "p": [
        0.5557350516319275,
        0.644966334104538,
        -0.08455799520015717,
        1.0
    ],
    "z": [
        0.20947383344173431,
        0.5793920954068502,
        -0.07061518480380376,
        1.0
    ],
    "\u00f1": [
        0.5735482573509216,
        0.6087261736392975,
        -0.09251615032553673,
        1.0
    ],
    "d": [
        0.2774146646261215,
        0.618506133556366,
        -0.11059262976050377,
        1.0
    ],
    "w": [
        0.21215030550956726,
        0.6689949333667755,
        -0.10100333392620087,
        1.0
    ],
    "h": [
        0.3998386263847351,
        0.6191138625144958,
        -0.09333785995841026,
        1.0
    ],
    "k": [
        0.4901648610830307,
        0.6103385984897614,
        -0.10788066312670708,
        1.0
    ],
    "y": [
        0.3946792185306549,
        0.6594429612159729,
        -0.09479151666164398,
        1.0
    ],
    ",": [
        0.5002334713935852,
        0.5696499347686768,
        -0.10792350769042969,
        1.0
    ],
    "x": [
        0.25609129667282104,
        0.5754772126674652,
        -0.07598169520497322,
        1.0
    ],
    "m": [
        0.4582792967557907,
        0.5592637360095978,
        -0.12285599112510681,
        1.0
    ],
    "v": [
        0.34632476170857746,
        0.5708842674891154,
        -0.11929779748121898,
        1.0
    ],
    ".": [
        0.5351331233978271,
        0.5871703028678894,
        -0.10226364185412724,
        1.0
    ]
}