{"f": [0.34275713562965393, 0.6536184549331665, -0.13918091356754303], "i": [0.4810901880264282, 0.6930742859840393, -0.13596995919942856], "j": [0.4601656198501587, 0.6542009711265564, -0.12536439299583435], "a": [0.22120734800895056, 0.646846612294515, -0.09940228859583537], "t": [0.36782532930374146, 0.6803107261657715, -0.12601393461227417], "e": [0.28037548065185547, 0.6939056873321533, -0.12037816494703293], "space": [0.4043814353644848, 0.5668868310749531, -0.0739350204821676], "q": [0.1932460069656372, 0.6951966285705566, -0.12471764534711838], "u": [0.44599783420562744, 0.692901611328125, -0.13180680572986603], "p": [0.5679863691329956, 0.706245481967926, -0.12094053626060486], "o": [0.5250031352043152, 0.7057496011257172, -0.1342664361000061], "n": [0.4391007125377655, 0.6188814043998718, -0.12018882483243942], "z": [0.23342381417751312, 0.6261386871337891, -0.1044270470738411], "\u00f1": [0.5780544281005859, 0.6606802940368652, -0.12519679963588715], "d": [0.29826608300209045, 0.658343493938446, -0.1256904900074005], "w": [0.23858390748500824, 0.6956011652946472, -0.12081856280565262], "h": [0.42330461740493774, 0.6556659936904907, -0.12786388397216797], "s": [0.25896432995796204, 0.6606063842773438, -0.11938256025314331], "k": [0.4920065701007843, 0.6598872542381287, -0.1341511756181717], "y": [0.41166046261787415, 0.6880549788475037, -0.13098984956741333], "x": [0.2849421203136444, 0.6224718689918518, -0.09537012875080109], "c": [0.3254707157611847, 0.6193932890892029, -0.11518282443284988], "l": [0.5251030921936035, 0.6675537824630737, -0.12798507511615753], "m": [0.4739207625389099, 0.619764506816864, -0.1657932847738266], "b": [0.3337640166282654, 0.6521012187004089, -0.12351594120264053], "g": [0.37456393241882324, 0.6575218439102173, -0.13117462396621704], "r": [0.3724251687526703, 0.6598926186561584, -0.12727615237236023], "v": [0.3619620203971863, 0.6270768642425537, -0.14657407999038696], ",": [0.4978683888912201, 0.6297776699066162, -0.128421351313591]}