{
    "j": [
        0.46633490920066833,
        0.6658746600151062,
        -0.19079165160655975
    ],
    "k": [
        0.5040323138237,
        0.7002041339874268,
        -0.19683755934238434
    ],
    "l": [
        0.5536797046661377,
        0.7039239406585693,
        -0.18156296014785767
    ],
    "\u00f1": [
        0.6032295227050781,
        0.6907743215560913,
        -0.16246989369392395
    ],
    "u": [
        0.4480781853199005,
        0.7417974472045898,
        -0.15777361392974854
    ],
    "i": [
        0.49715456366539,
        0.7342545986175537,
        -0.196163147687912
    ],
    "o": [
        0.5474969744682312,
        0.7466939687728882,
        -0.1982220560312271
    ],
    "p": [
        0.5907330214977264,
        0.7628768682479858,
        -0.16292009502649307
    ],
    "h": [
        0.42184048891067505,
        0.6710944175720215,
        -0.14898289740085602
    ],
    "y": [
        0.4077211022377014,
        0.724223256111145,
        -0.1430911123752594
    ],
    "f": [
        0.3279588520526886,
        0.6773533821105957,
        -0.17749105393886566
    ],
    "d": [
        0.28177857398986816,
        0.6975994110107422,
        -0.16525046527385712
    ],
    "s": [
        0.2349925935268402,
        0.7005849480628967,
        -0.15007391571998596
    ],
    "a": [
        0.1836073398590088,
        0.6745961308479309,
        -0.12860313057899475
    ],
    "g": [
        0.37548258900642395,
        0.670437753200531,
        -0.17586559057235718
    ],
    "t": [
        0.3543175756931305,
        0.7423801422119141,
        -0.1720508635044098
    ],
    "r": [
        0.3186928331851959,
        0.7377673983573914,
        -0.1532822847366333
    ],
    "e": [
        0.26514363288879395,
        0.7461060285568237,
        -0.1648148000240326
    ],
    "w": [
        0.21836093068122864,
        0.7432507276535034,
        -0.1621658354997635
    ],
    "q": [
        0.17437498271465302,
        0.7517252266407013,
        -0.11675099655985832
    ],
    "n": [
        0.44450536370277405,
        0.6215737462043762,
        -0.1995580643415451
    ],
    "z": [
        0.2059001326560974,
        0.6327208876609802,
        -0.12401829659938812
    ],
    "x": [
        0.2551441490650177,
        0.6386456489562988,
        -0.13680170476436615
    ],
    "c": [
        0.29744452238082886,
        0.6361061334609985,
        -0.16841250658035278
    ],
    "v": [
        0.36045458912849426,
        0.6246193647384644,
        -0.17481540143489838
    ],
    "b": [
        0.3968064785003662,
        0.6069862842559814,
        -0.1961132287979126
    ],
    "m": [
        0.4535180330276489,
        0.6111128330230713,
        -0.19857555627822876
    ],
    ",": [
        0.4861423373222351,
        0.6624031066894531,
        -0.18126726150512695
    ],
    ".": [
        0.5430693030357361,
        0.6728712916374207,
        -0.14678610861301422
    ]
}